<?xml version="1.0"?>
<opencv_storage>
<stage16>
  <maxWeakCount>32</maxWeakCount>
  <stageThreshold>-6.9894903898239136e-01</stageThreshold>
  <weakClassifiers>
    <_>
      <internalNodes>
        0 -1 118406 2.0518874749541283e-02</internalNodes>
      <leafValues>
        -1.9191919267177582e-01 4.6300914883613586e-01</leafValues></_>
    <_>
      <internalNodes>
        0 -1 110259 -1.1377478018403053e-02</internalNodes>
      <leafValues>
        1.8707560002803802e-01 -4.0056002140045166e-01</leafValues></_>
    <_>
      <internalNodes>
        0 -1 163735 1.1207528412342072e-02</internalNodes>
      <leafValues>
        -2.7749654650688171e-01 2.4358931183815002e-01</leafValues></_>
    <_>
      <internalNodes>
        0 -1 95138 1.0740640759468079e-01</internalNodes>
      <leafValues>
        -3.1680080294609070e-01 1.7693628370761871e-01</leafValues></_>
    <_>
      <internalNodes>
        0 -1 163274 2.9431178700178862e-03</internalNodes>
      <leafValues>
        -2.0525960624217987e-01 2.7422639727592468e-01</leafValues></_>
    <_>
      <internalNodes>
        0 -1 129852 -2.5758434087038040e-02</internalNodes>
      <leafValues>
        -5.7416874170303345e-01 1.0326878726482391e-01</leafValues></_>
    <_>
      <internalNodes>
        0 -1 147156 1.1086560785770416e-02</internalNodes>
      <leafValues>
        -7.3126226663589478e-02 8.2661432027816772e-01</leafValues></_>
    <_>
      <internalNodes>
        0 -1 152814 3.1024347990751266e-02</internalNodes>
      <leafValues>
        7.9051047563552856e-02 -7.7383577823638916e-01</leafValues></_>
    <_>
      <internalNodes>
        0 -1 143871 -4.9591194838285446e-03</internalNodes>
      <leafValues>
        1.6563542187213898e-01 -3.0121597647666931e-01</leafValues></_>
    <_>
      <internalNodes>
        0 -1 129248 -7.4472064152359962e-03</internalNodes>
      <leafValues>
        4.4463384151458740e-01 -1.6738234460353851e-01</leafValues></_>
    <_>
      <internalNodes>
        0 -1 129252 -1.0996550321578979e-02</internalNodes>
      <leafValues>
        3.2384860515594482e-01 -1.6489537060260773e-01</leafValues></_>
    <_>
      <internalNodes>
        0 -1 152965 -1.5941500663757324e-02</internalNodes>
      <leafValues>
        -5.9617543220520020e-01 6.6275589168071747e-02</leafValues></_>
    <_>
      <internalNodes>
        0 -1 145649 -3.3607587218284607e-02</internalNodes>
      <leafValues>
        -6.7074745893478394e-01 6.4522728323936462e-02</leafValues></_>
    <_>
      <internalNodes>
        0 -1 127584 1.3596309348940849e-02</internalNodes>
      <leafValues>
        4.6842675656080246e-02 -8.2070720195770264e-01</leafValues></_>
    <_>
      <internalNodes>
        0 -1 121093 -1.7024690168909729e-04</internalNodes>
      <leafValues>
        1.9312895834445953e-01 -2.3856338858604431e-01</leafValues></_>
    <_>
      <internalNodes>
        0 -1 147156 -2.3036531638354063e-03</internalNodes>
      <leafValues>
        3.2700780034065247e-01 -1.3818989694118500e-01</leafValues></_>
    <_>
      <internalNodes>
        0 -1 171460 3.4384159371256828e-03</internalNodes>
      <leafValues>
        7.0490740239620209e-02 -7.5040531158447266e-01</leafValues></_>
    <_>
      <internalNodes>
        0 -1 16778 2.7269052807241678e-03</internalNodes>
      <leafValues>
        6.2111753970384598e-02 -6.1221015453338623e-01</leafValues></_>
    <_>
      <internalNodes>
        0 -1 170751 4.4061122462153435e-03</internalNodes>
      <leafValues>
        -1.4370788633823395e-01 3.3498504757881165e-01</leafValues></_>
    <_>
      <internalNodes>
        0 -1 105641 1.2137212604284286e-01</internalNodes>
      <leafValues>
        -1.5717193484306335e-01 2.8267455101013184e-01</leafValues></_>
    <_>
      <internalNodes>
        0 -1 19151 1.1352170258760452e-03</internalNodes>
      <leafValues>
        7.8639522194862366e-02 -5.1393848657608032e-01</leafValues></_>
    <_>
      <internalNodes>
        0 -1 118313 4.4482857920229435e-03</internalNodes>
      <leafValues>
        -1.0224939882755280e-01 4.4059374928474426e-01</leafValues></_>
    <_>
      <internalNodes>
        0 -1 117866 -5.5199922062456608e-03</internalNodes>
      <leafValues>
        4.3341109156608582e-01 -1.1859510838985443e-01</leafValues></_>
    <_>
      <internalNodes>
        0 -1 26035 2.4124383926391602e-03</internalNodes>
      <leafValues>
        -1.8021962046623230e-01 2.8014689683914185e-01</leafValues></_>
    <_>
      <internalNodes>
        0 -1 119084 -2.0475327968597412e-02</internalNodes>
      <leafValues>
        6.1932694911956787e-01 -7.2100482881069183e-02</leafValues></_>
    <_>
      <internalNodes>
        0 -1 164207 2.6806333335116506e-04</internalNodes>
      <leafValues>
        -2.0976956188678741e-01 2.0279937982559204e-01</leafValues></_>
    <_>
      <internalNodes>
        0 -1 41133 -2.8455834835767746e-03</internalNodes>
      <leafValues>
        3.1549850106239319e-01 -1.5889428555965424e-01</leafValues></_>
    <_>
      <internalNodes>
        0 -1 115992 -2.8249757364392281e-02</internalNodes>
      <leafValues>
        -3.7181922793388367e-01 1.1799407750368118e-01</leafValues></_>
    <_>
      <internalNodes>
        0 -1 147182 -3.4448518417775631e-03</internalNodes>
      <leafValues>
        -6.8517547845840454e-01 6.7145697772502899e-02</leafValues></_>
    <_>
      <internalNodes>
        0 -1 153623 -1.3854831922799349e-03</internalNodes>
      <leafValues>
        4.4300398230552673e-01 -1.0637713968753815e-01</leafValues></_>
    <_>
      <internalNodes>
        0 -1 111425 1.3905961532145739e-03</internalNodes>
      <leafValues>
        -1.6676168143749237e-01 2.9748454689979553e-01</leafValues></_>
    <_>
      <internalNodes>
        0 -1 171304 2.1936791017651558e-03</internalNodes>
      <leafValues>
        8.1392273306846619e-02 -6.7771834135055542e-01</leafValues></_></weakClassifiers></stage16>
</opencv_storage>
